{"net.0.weight": [[0.4401577115058899, 0.21143944561481476, -0.29648876190185547, 0.2295006960630417, -0.22617888450622559, 0.2632330358028412, -0.7692540884017944, 0.0061302329413592815, 0.5306745767593384, 0.2193656861782074, 0.4826419949531555, -0.1082242950797081, -0.1885930299758911, 0.021959494799375534, -0.3388509750366211, -0.21179421246051788], [0.24972741305828094, 0.025736885145306587, -0.950027346611023, 0.4479465186595917, 0.149416983127594, -0.7020028829574585, 0.002350172959268093, 0.620060384273529, 0.35489052534103394, -0.5797126293182373, 0.42713770270347595, -0.48662394285202026, 0.4622674286365509, -0.8598371744155884, -0.0892140194773674, -0.14425916969776154], [0.48312389850616455, 0.3987835943698883, -0.7214340567588806, 0.46922314167022705, -0.03467424958944321, 0.15098325908184052, 0.3719218373298645, -0.28222066164016724, 0.08081971108913422, -0.017428016290068626, -0.30143317580223083, 0.23964358866214752, 0.12141850590705872, 0.08390593528747559, 0.12898094952106476, 0.0754089280962944], [0.2961442470550537, -0.20913442969322205, -0.6957701444625854, -0.30600544810295105, -0.38419419527053833, 0.035082731395959854, -0.03527949005365372, 0.16638381779193878, 0.2654716372489929, 0.35007813572883606, -0.13756132125854492, -0.8815614581108093, -0.05424075946211815, -0.08515112847089767, -0.09807776659727097, -0.4442442059516907], [0.11489085108041763, -0.0794430524110794, 0.8188515305519104, -0.08018723875284195, -0.2699393928050995, -0.33838793635368347, -0.18123601377010345, 0.035206861793994904, 0.26380521059036255, 0.2339872270822525, -0.11986836045980453, 0.2676105499267578, -0.8103842735290527, -0.39098718762397766, -0.24141395092010498, 0.7936517596244812], [-0.18680095672607422, -0.6391236782073975, 0.6004679799079895, 0.019948653876781464, 0.5266327857971191, -0.15912353992462158, 0.03943389654159546, -0.3445686995983124, -0.5665269494056702, -0.10094787925481796, 0.43837782740592957, 0.12893836200237274, 0.2781639099121094, -0.13800199329853058, -0.24275602400302887, -0.02146204002201557], [0.27121204137802124, -0.22306860983371735, -0.4549252986907959, -0.7646725177764893, -0.19798561930656433, 0.07020057737827301, -0.36552613973617554, 0.10080453008413315, -0.014085167087614536, 0.11809559166431427, -0.12645012140274048, -0.10121283680200577, -0.13963425159454346, 0.08194106072187424, 0.16107825934886932, -0.2550024092197418], [0.5232300758361816, -0.578789472579956, 0.1714165210723877, 0.746601402759552, -0.9844313263893127, -0.3640720546245575, -0.07390634715557098, -0.5363056659698486, 0.021571271121501923, -0.8613685965538025, 0.584258496761322, 0.01925220899283886, 0.04194933548569679, -0.20833157002925873, -0.10949452966451645, 0.6831119060516357], [0.08304162323474884, 0.2515959143638611, 0.7710045576095581, -0.07368236780166626, -0.12923873960971832, 0.4337193965911865, -0.8444521427154541, 0.34330859780311584, -0.27713480591773987, -0.4848040044307709, 0.1881764531135559, 0.42475566267967224, 0.38017868995666504, -0.5084252953529358, 0.2275787889957428, -0.2571113705635071], [-0.12743084132671356, -0.4767198860645294, -0.22012509405612946, -0.10836009681224823, 0.5541606545448303, -0.2021588236093521, -0.013421418145298958, 0.14192503690719604, -0.26713141798973083, -0.07235437631607056, -0.18569067120552063, -0.3489116430282593, -0.09107114374637604, 0.04251568391919136, -0.3451170027256012, -0.4609217941761017], [0.5458137392997742, 0.10791125893592834, 0.5063290596008301, -0.8827747702598572, -0.011755582876503468, 0.07109931111335754, -0.19078165292739868, 0.7322351336479187, 0.28059953451156616, -0.1906622052192688, -0.24572506546974182, 0.30048519372940063, 0.3085867166519165, 0.5314782857894897, 0.11615071445703506, 0.4795904755592346], [-0.3939139246940613, 0.00526160653680563, 0.46511125564575195, -0.43616238236427307, -0.3657786548137665, -0.15902335941791534, -0.2950890064239502, -0.10683896392583847, 0.2594682574272156, 0.06715492904186249, 0.39031049609184265, 0.1453699767589569, -0.0947205200791359, -0.05731625109910965, 0.10440559685230255, -0.19626331329345703], [0.5563109517097473, 0.6060141324996948, 0.06133168563246727, 0.2120504230260849, -0.402924507856369, 0.1863328516483307, 0.11529627442359924, -0.7336022257804871, -0.17423859238624573, 0.12455467134714127, 0.28222087025642395, 0.542931318283081, 0.1444709599018097, -0.42457306385040283, 0.22976553440093994, -0.11501286923885345], [-0.13395121693611145, 0.3885763883590698, 0.6593267917633057, 0.5085707306861877, -0.44935470819473267, -0.0013755878899246454, -0.12376377731561661, 0.30059120059013367, 0.5538520812988281, -0.1749366819858551, 0.0936717614531517, -0.2742649018764496, -0.2790837287902832, 0.16731838881969452, 0.2680925130844116, 0.2551088333129883], [-0.8179640769958496, 0.3482438325881958, -0.23405830562114716, -0.3342352509498596, -0.9356579780578613, -0.3803052008152008, 0.11571802943944931, 0.18789498507976532, 0.583010196685791, 0.42629554867744446, -0.5671263933181763, -0.18798771500587463, -0.26073816418647766, -0.4913855493068695, -0.05600439012050629, -0.7767723798751831], [0.28635984659194946, -0.16647864878177643, 0.6476330757141113, -0.018220704048871994, -0.0015455991961061954, 0.0061428784392774105, -0.7059668302536011, -0.44977518916130066, -0.10547077655792236, 0.4468548893928528, 0.008264738135039806, -0.7833147644996643, 0.3100687563419342, -0.4286077320575714, 0.07868009060621262, -0.4200446307659149]], "net.0.bias": [0.3946882486343384, -0.30712565779685974, 0.3376619517803192, 0.3738848567008972, 0.31700626015663147, -0.43017780780792236, 0.3585156202316284, -0.4260827898979187, 0.41419821977615356, 0.3611992299556732, -0.27680298686027527, -0.22744417190551758, -0.29160475730895996, -0.357971727848053, 0.26505959033966064, -0.38677874207496643], "net.2.weight": [[-0.1911390721797943, 0.823935329914093, -0.15197215974330902, -0.4724116325378418, 0.22340893745422363, -0.324630469083786, -0.23779956996440887, -0.46295440196990967, 0.4495423436164856, -0.4623686373233795, -0.5408450961112976, -0.4543258845806122, -0.5375824570655823, -0.5218591094017029, -0.7305687069892883, -0.1626645177602768], [0.5642582774162292, -0.6119966506958008, 0.3322184085845947, 0.27442073822021484, -0.5987420678138733, 0.14995665848255157, 0.42790406942367554, 0.13975292444229126, -0.6970911622047424, 0.29040616750717163, 0.47835296392440796, 0.20760102570056915, 0.48112210631370544, 0.33186769485473633, 0.4063829481601715, 0.2517574429512024], [-0.3426954448223114, -0.12268268316984177, -0.06433115154504776, 0.16674524545669556, -0.5167407393455505, 0.003637920366600156, 0.055427420884370804, -0.05496597662568092, -0.7055707573890686, -0.11644331365823746, 0.38861340284347534, 0.24509333074092865, 0.13546346127986908, 0.05908520147204399, -0.14314596354961395, -0.007666639983654022], [-0.2661685645580292, -0.5307929515838623, 0.34203001856803894, 0.4483775496482849, -0.6090222597122192, -0.15110868215560913, -0.3168903887271881, -0.5433073043823242, -0.702907919883728, -0.17855463922023773, 0.5231816172599792, 0.33804258704185486, -0.056702740490436554, -0.3663012683391571, 0.052869636565446854, -0.15831154584884644], [-0.10725273936986923, -0.27536672353744507, -0.00585090322420001, 0.2750452160835266, -0.3150283992290497, 0.0024995231069624424, -0.17002958059310913, -0.5391730666160583, -0.6607025265693665, -0.2412993162870407, 0.5180907249450684, 0.15639008581638336, -0.04062245041131973, -0.054848942905664444, 0.10027776658535004, 0.1554119735956192], [-0.013506865128874779, 0.05914789438247681, -0.1481049805879593, -0.0018236249452456832, 0.04214349761605263, 0.009219473227858543, -0.23208117485046387, 0.7818708419799805, -0.5037278532981873, -0.024471640586853027, 0.11088750511407852, -0.06774631142616272, 0.4432176947593689, 0.2201293408870697, -0.005971607286483049, -0.005086096003651619], [-0.3314267694950104, -0.34336230158805847, 0.3406236171722412, 0.37794581055641174, -0.4432486891746521, 0.011400939896702766, -0.23290711641311646, -0.42554301023483276, -0.4021226763725281, 0.04973500967025757, 0.47034013271331787, -0.035924915224313736, 0.2130509614944458, -0.29407116770744324, 0.13122156262397766, 0.19427628815174103], [-0.3966227173805237, 0.829139769077301, -0.6245181560516357, -0.4603988826274872, 0.4515667259693146, -0.5055980682373047, -0.39516130089759827, -0.41728633642196655, 0.6347240209579468, -0.14888638257980347, -0.42259690165519714, -0.4456613063812256, -0.6280629634857178, -0.3233819007873535, -0.4013805091381073, -0.5660167932510376]], "net.2.bias": [-0.2271430641412735, 0.3017508387565613, -0.28226375579833984, -0.25178763270378113, -0.23893232643604279, -0.3031400442123413, -0.34987953305244446, -0.2901773750782013], "net.4.weight": [[-0.5672622919082642, -0.24772915244102478, 0.13913510739803314, 0.22395804524421692, 0.6049980521202087, 0.41955792903900146, 0.44817015528678894, -0.5962929725646973], [0.2431306093931198, 0.487825870513916, -0.4776240885257721, -0.5933964252471924, -0.28498339653015137, -0.4257236421108246, -0.46116527915000916, 0.6348461508750916]], "net.4.bias": [0.321231484413147, 0.020439941436052322]}